{"sizes":[20,10,2],"layers":[{"0":{},"10":{},"19":{},"27":{},"30":{},"38":{},"44":{},"53":{},"55":{},"59":{},"60":{},"65":{},"66":{},"70":{},"72":{},"83":{},"87":{},"90":{},"97":{},"100":{}},{"0":{"bias":-0.0731559693813324,"weights":{"0":-0.6928468942642212,"10":-0.7490139007568359,"19":-0.36664777994155884,"27":-0.4013352394104004,"30":-0.6287314295768738,"38":-0.6170688271522522,"44":-0.2733199894428253,"53":-0.44595104455947876,"55":-0.6078593134880066,"59":-0.5652311444282532,"60":0.4047775864601135,"65":0.401471346616745,"66":0.661196231842041,"70":0.6464458703994751,"72":0.6114508509635925,"83":0.6323522925376892,"87":0.5769204497337341,"90":0.716410756111145,"97":0.66390061378479,"100":0.5258460640907288}},"1":{"bias":-0.040493372827768326,"weights":{"0":-0.6785263419151306,"10":-0.7202885150909424,"19":-0.5903735160827637,"27":-0.6646329760551453,"30":-0.9204622507095337,"38":-0.6946877241134644,"44":-0.7150430083274841,"53":-0.74422687292099,"55":-0.6950219869613647,"59":-0.6156806349754333,"60":0.6287055015563965,"65":0.8347148895263672,"66":0.8276786804199219,"70":0.6524654030799866,"72":0.6165188550949097,"83":0.5520111322402954,"87":0.5476734638214111,"90":0.8767359852790833,"97":0.7930479645729065,"100":0.6659577488899231}},"2":{"bias":-0.08060263842344284,"weights":{"0":-0.323745459318161,"10":-0.224568173289299,"19":0.09551753103733063,"27":0.008738772943615913,"30":-0.39683523774147034,"38":0.004062474239617586,"44":-0.24395471811294556,"53":0.045875370502471924,"55":-0.15203484892845154,"59":-0.06987278163433075,"60":0.19619686901569366,"65":0.0013151990715414286,"66":0.29711082577705383,"70":0.1406324803829193,"72":0.2188360095024109,"83":0.10111086815595627,"87":0.008061772212386131,"90":0.010405442677438259,"97":0.1492246836423874,"100":0.11689027398824692}},"3":{"bias":-0.009123388677835464,"weights":{"0":0.6857101917266846,"10":0.7273630499839783,"19":0.887013852596283,"27":0.6671065092086792,"30":0.7805028557777405,"38":0.6538525819778442,"44":0.8562211394309998,"53":0.7166888117790222,"55":0.8178489804267883,"59":0.811833381652832,"60":-0.8294092416763306,"65":-0.8512584567070007,"66":-0.6434128880500793,"70":-0.9786888360977173,"72":-0.6621434688568115,"83":-0.7600404620170593,"87":-0.7335489392280579,"90":-0.7834776639938354,"97":-0.7434565424919128,"100":-0.8480809330940247}},"4":{"bias":-0.2605647146701813,"weights":{"0":0.2802762985229492,"10":0.36733782291412354,"19":0.32207798957824707,"27":0.4563487768173218,"30":0.10327554494142532,"38":0.13077616691589355,"44":0.2597808837890625,"53":0.4146346151828766,"55":0.06126558780670166,"59":0.2096480280160904,"60":-0.2950955927371979,"65":-0.035367853939533234,"66":-0.37174955010414124,"70":-0.4649035334587097,"72":-0.1964554488658905,"83":-0.2601949870586395,"87":-0.154067724943161,"90":-0.31871193647384644,"97":-0.08089981228113174,"100":-0.3662435710430145}},"5":{"bias":-0.06342974305152893,"weights":{"0":0.7158629894256592,"10":0.7244319915771484,"19":0.7096313834190369,"27":0.7267745137214661,"30":0.5560287237167358,"38":0.7095413208007812,"44":0.6283906698226929,"53":0.8436956405639648,"55":0.6700366735458374,"59":0.8006387948989868,"60":-0.8463758230209351,"65":-0.5656185746192932,"66":-0.6234723925590515,"70":-0.8516399264335632,"72":-0.5823487639427185,"83":-0.685118556022644,"87":-0.5474846363067627,"90":-0.7028070688247681,"97":-0.7015485763549805,"100":-0.7493167519569397}},"6":{"bias":-0.13611024618148804,"weights":{"0":-0.5609928369522095,"10":-0.429668664932251,"19":-0.4891186058521271,"27":-0.20552505552768707,"30":-0.3873650133609772,"38":-0.4111652076244354,"44":-0.38414672017097473,"53":-0.2687463164329529,"55":-0.37078559398651123,"59":-0.3381631374359131,"60":0.43978434801101685,"65":0.5601192116737366,"66":0.39909350872039795,"70":0.3897174894809723,"72":0.43453896045684814,"83":0.5398192405700684,"87":0.4335560202598572,"90":0.33903905749320984,"97":0.2953002452850342,"100":0.5298362374305725}},"7":{"bias":-0.07704029977321625,"weights":{"0":-0.8822587728500366,"10":-0.7602533102035522,"19":-0.4976450204849243,"27":-0.5426855683326721,"30":-0.805178165435791,"38":-0.7104542851448059,"44":-0.45570334792137146,"53":-0.6084713935852051,"55":-0.6160433292388916,"59":-0.7712514996528625,"60":0.7225543260574341,"65":0.7677434682846069,"66":0.5636402368545532,"70":0.76213538646698,"72":0.7187988758087158,"83":0.82239830493927,"87":0.8455274105072021,"90":0.7545920014381409,"97":0.6968271732330322,"100":0.7912405133247375}},"8":{"bias":0.015472735278308392,"weights":{"0":0.8234779238700867,"10":0.8237253427505493,"19":0.7733957767486572,"27":0.9745997786521912,"30":0.9727181792259216,"38":0.7722517251968384,"44":0.8133942484855652,"53":0.8597022891044617,"55":0.9469513893127441,"59":0.9386216402053833,"60":-1.0137556791305542,"65":-0.8359586596488953,"66":-0.8540378212928772,"70":-0.9893921613693237,"72":-0.9018821120262146,"83":-1.1093106269836426,"87":-0.7993941903114319,"90":-0.7912030816078186,"97":-0.9445623755455017,"100":-0.8478869795799255}},"9":{"bias":-0.2708851099014282,"weights":{"0":-0.0332719087600708,"10":-0.2081531435251236,"19":-0.08320122957229614,"27":0.013640168122947216,"30":-0.23973073065280914,"38":0.10075172781944275,"44":0.14401088654994965,"53":0.12725141644477844,"55":0.1598472148180008,"59":0.01036008633673191,"60":0.11364385485649109,"65":0.059794433414936066,"66":-0.05334296450018883,"70":-0.12473788857460022,"72":0.2252664566040039,"83":-0.15548351407051086,"87":-0.12082216888666153,"90":-0.07698535174131393,"97":0.15207593142986298,"100":-0.11284509301185608}}},{"good grade":{"bias":0.09441356360912323,"weights":{"0":1.891189694404602,"1":2.2075889110565186,"2":0.5209234952926636,"3":-2.428438901901245,"4":-0.9601236581802368,"5":-2.151493787765503,"6":1.3133587837219238,"7":2.253769636154175,"8":-2.889470100402832,"9":-0.03756510466337204}},"bad grade":{"bias":-0.11210247129201889,"weights":{"0":-1.690738558769226,"1":-2.287693738937378,"2":-0.3086854815483093,"3":2.47395396232605,"4":0.6291261911392212,"5":2.2537500858306885,"6":-1.2973917722702026,"7":-2.2790064811706543,"8":2.8263437747955322,"9":-0.04047812521457672}}}],"outputLookup":true,"inputLookup":true,"activation":"sigmoid","trainOpts":{"iterations":20000,"errorThresh":0.005,"log":true,"logPeriod":10,"learningRate":0.3,"momentum":0.1,"callbackPeriod":10}}