{"sizes":[22,11,2],"layers":[{"jacket":{},"snowman":{},"snow":{},"ice":{},"cold":{},"boots":{},"bonnet":{},"scarf":{},"rain":{},"wind":{},"shorts":{},"cream":{},"t":{},"shirt":{},"sunny":{},"beach":{},"hot":{},"iced":{},"coffee":{},"swimming":{},"air":{},"conditioner":{}},{"0":{"bias":0.005119407083839178,"weights":{"jacket":-0.4531383216381073,"snowman":-0.6944305896759033,"snow":-0.5877293944358826,"ice":-0.20159074664115906,"cold":-0.260124146938324,"boots":-0.5009244084358215,"bonnet":-0.30581673979759216,"scarf":-0.31059715151786804,"rain":-0.473833829164505,"wind":-0.38777127861976624,"shorts":0.512627124786377,"cream":0.6826313734054565,"t":0.10673493146896362,"shirt":0.3397890031337738,"sunny":0.5561122894287109,"beach":0.6019944548606873,"hot":0.5786150097846985,"iced":0.47711268067359924,"coffee":0.39744606614112854,"swimming":0.8015178442001343,"air":0.4498940110206604,"conditioner":0.47767728567123413}},"1":{"bias":-0.15614096820354462,"weights":{"jacket":-0.016016123816370964,"snowman":0.11015214025974274,"snow":0.30775517225265503,"ice":-0.033759210258722305,"cold":0.36620500683784485,"boots":0.08206135034561157,"bonnet":0.2628050446510315,"scarf":0.2962920665740967,"rain":0.36221104860305786,"wind":0.3523644804954529,"shorts":-0.17983928322792053,"cream":-0.3339942395687103,"t":-0.3328365683555603,"shirt":-0.322942852973938,"sunny":-0.20351074635982513,"beach":-0.19596152007579803,"hot":-0.1630096137523651,"iced":-0.038996051996946335,"coffee":-0.29541388154029846,"swimming":-0.07760864496231079,"air":-0.03489799052476883,"conditioner":-0.19826938211917877}},"2":{"bias":0.008225427009165287,"weights":{"jacket":0.6039702892303467,"snowman":0.43523168563842773,"snow":0.683660626411438,"ice":0.2664487361907959,"cold":0.5553107261657715,"boots":0.4556344747543335,"bonnet":0.4987261891365051,"scarf":0.5731185674667358,"rain":0.48272591829299927,"wind":0.5927304029464722,"shorts":-0.9702369570732117,"cream":-1.1035593748092651,"t":-0.3130209445953369,"shirt":-0.6850899457931519,"sunny":-0.6968510746955872,"beach":-0.8528955578804016,"hot":-0.6013201475143433,"iced":-0.5255182981491089,"coffee":-0.5274553298950195,"swimming":-0.6221442222595215,"air":-0.3360976278781891,"conditioner":-0.3121354281902313}},"3":{"bias":-0.005403721239417791,"weights":{"jacket":0.47658440470695496,"snowman":0.7579151391983032,"snow":0.5782722234725952,"ice":0.3851170837879181,"cold":0.5015060305595398,"boots":0.5582351684570312,"bonnet":0.5932536125183105,"scarf":0.5220975875854492,"rain":0.5156866312026978,"wind":0.4707934558391571,"shorts":-1.0375703573226929,"cream":-1.1771968603134155,"t":-0.4686039984226227,"shirt":-0.5637079477310181,"sunny":-0.810941219329834,"beach":-0.8500641584396362,"hot":-0.7729704976081848,"iced":-0.3686557114124298,"coffee":-0.4403647184371948,"swimming":-0.8342769742012024,"air":-0.5609895586967468,"conditioner":-0.32253214716911316}},"4":{"bias":0.04516046121716499,"weights":{"jacket":0.605888307094574,"snowman":0.4316718578338623,"snow":0.4990362823009491,"ice":0.12178460508584976,"cold":0.6140214204788208,"boots":0.44845277070999146,"bonnet":0.4926876127719879,"scarf":0.541468620300293,"rain":0.351068913936615,"wind":0.5961880683898926,"shorts":-0.8959945440292358,"cream":-1.056365966796875,"t":-0.49871814250946045,"shirt":-0.49512311816215515,"sunny":-0.9207766652107239,"beach":-0.8558247685432434,"hot":-0.6711840629577637,"iced":-0.5430177450180054,"coffee":-0.3978979289531708,"swimming":-0.590053915977478,"air":-0.4166451394557953,"conditioner":-0.5028767585754395}},"5":{"bias":-0.0009771434124559164,"weights":{"jacket":-0.7344257235527039,"snowman":-0.6187336444854736,"snow":-0.5255714058876038,"ice":-0.3370509147644043,"cold":-0.4978211522102356,"boots":-0.5588006973266602,"bonnet":-0.36142098903656006,"scarf":-0.4146266579627991,"rain":-0.29259422421455383,"wind":-0.2805991768836975,"shorts":0.5915670394897461,"cream":0.8355308771133423,"t":0.4703872501850128,"shirt":0.5177645087242126,"sunny":0.6243184208869934,"beach":0.5494862198829651,"hot":0.7545834183692932,"iced":0.45611947774887085,"coffee":0.30956923961639404,"swimming":0.5453516244888306,"air":0.4025130271911621,"conditioner":0.2248348742723465}},"6":{"bias":-0.07336535304784775,"weights":{"jacket":-0.07213971763849258,"snowman":0.04635537788271904,"snow":-0.07363908737897873,"ice":-0.0210102666169405,"cold":0.15423962473869324,"boots":-0.05723322182893753,"bonnet":0.17815124988555908,"scarf":0.01711414009332657,"rain":0.011070335283875465,"wind":0.17569245398044586,"shorts":-0.23195308446884155,"cream":-0.2103712111711502,"t":-0.06928697973489761,"shirt":-0.07031858712434769,"sunny":-0.20801764726638794,"beach":0.08450060337781906,"hot":0.10819228738546371,"iced":-0.1279969960451126,"coffee":-0.032344941049814224,"swimming":0.15996262431144714,"air":-0.026691963896155357,"conditioner":-0.03176253288984299}},"7":{"bias":-0.00718900328502059,"weights":{"jacket":-0.8133940100669861,"snowman":-0.7506902813911438,"snow":-0.8187030553817749,"ice":-0.6303530931472778,"cold":-0.7783819437026978,"boots":-0.6280789971351624,"bonnet":-0.6276116371154785,"scarf":-0.549989640712738,"rain":-0.6724965572357178,"wind":-0.6796501874923706,"shorts":0.7422661781311035,"cream":1.2235478162765503,"t":0.6186054944992065,"shirt":0.6608814597129822,"sunny":0.9318348169326782,"beach":0.9222062826156616,"hot":0.8988826274871826,"iced":0.4319322407245636,"coffee":0.6407826542854309,"swimming":0.9145632982254028,"air":0.7114567756652832,"conditioner":0.47785183787345886}},"8":{"bias":-0.10896633565425873,"weights":{"jacket":-0.38237354159355164,"snowman":-0.45139577984809875,"snow":-0.4252960979938507,"ice":-0.20250435173511505,"cold":-0.3392760455608368,"boots":-0.4718305468559265,"bonnet":-0.3546677231788635,"scarf":-0.35777923464775085,"rain":-0.16522465646266937,"wind":-0.23447172343730927,"shorts":0.6035670638084412,"cream":0.6664752960205078,"t":0.3193947374820709,"shirt":0.2731177508831024,"sunny":0.4577299952507019,"beach":0.6809493899345398,"hot":0.6212696433067322,"iced":0.46005013585090637,"coffee":0.41665709018707275,"swimming":0.6213103532791138,"air":0.23801015317440033,"conditioner":0.4298701584339142}},"9":{"bias":0.03197312355041504,"weights":{"jacket":0.7163199186325073,"snowman":0.7472837567329407,"snow":0.7150018811225891,"ice":0.3643554747104645,"cold":0.6090142726898193,"boots":0.6809662580490112,"bonnet":0.7709562182426453,"scarf":0.755035936832428,"rain":0.6959124207496643,"wind":0.5961761474609375,"shorts":-1.1407992839813232,"cream":-1.2095787525177002,"t":-0.3982703983783722,"shirt":-0.7423189878463745,"sunny":-1.0465580224990845,"beach":-0.8077394962310791,"hot":-0.9942314028739929,"iced":-0.40524595975875854,"coffee":-0.35464805364608765,"swimming":-0.8370028138160706,"air":-0.4053645730018616,"conditioner":-0.4731423258781433}},"10":{"bias":-0.16998550295829773,"weights":{"jacket":0.3468576669692993,"snowman":0.38544586300849915,"snow":0.16611486673355103,"ice":0.2620047926902771,"cold":0.3742865025997162,"boots":0.3855273723602295,"bonnet":0.3018169105052948,"scarf":0.14586344361305237,"rain":0.4155980050563812,"wind":0.12199615687131882,"shorts":-0.6844950318336487,"cream":-0.6135520935058594,"t":-0.48609188199043274,"shirt":-0.1980552077293396,"sunny":-0.4585513472557068,"beach":-0.34872502088546753,"hot":-0.5357298851013184,"iced":-0.3876470923423767,"coffee":-0.12581847608089447,"swimming":-0.5357487201690674,"air":-0.34079617261886597,"conditioner":-0.2536501884460449}}},{"cold weather":{"bias":-0.5402634143829346,"weights":{"0":-1.628618597984314,"1":0.46333232522010803,"2":1.7547258138656616,"3":2.013493537902832,"4":2.042387008666992,"5":-1.8215179443359375,"6":0.08913104981184006,"7":-2.7082772254943848,"8":-1.5326855182647705,"9":2.3950002193450928,"10":1.0517578125}},"hot weather":{"bias":0.6422034502029419,"weights":{"0":1.7420357465744019,"1":-0.606478750705719,"2":-2.0211756229400635,"3":-2.1145248413085938,"4":-1.7204703092575073,"5":1.799773931503296,"6":0.005770742893218994,"7":2.5465574264526367,"8":1.5408560037612915,"9":-2.3264191150665283,"10":-1.1924642324447632}}}],"outputLookup":true,"inputLookup":true,"activation":"sigmoid","trainOpts":{"iterations":20000,"errorThresh":0.005,"log":true,"logPeriod":10,"learningRate":0.3,"momentum":0.1,"callbackPeriod":10}}