{"sizes":[12,6,2],"layers":[{"jacket":{},"ice":{},"cold":{},"rain":{},"wind":{},"cream":{},"t":{},"shirt":{},"hot":{},"beach":{},"shorts":{},"dsa":{}},{"0":{"bias":0.0021325647830963135,"weights":{"jacket":0.09791108220815659,"ice":-0.03389929607510567,"cold":0.3474022448062897,"rain":0.42601725459098816,"wind":0.2306271195411682,"cream":-0.5916875004768372,"t":-0.10534641891717911,"shirt":-0.05242213234305382,"hot":-0.34171125292778015,"beach":-0.17401178181171417,"shorts":-0.24423156678676605,"dsa":-0.06929196417331696}},"1":{"bias":-0.29181626439094543,"weights":{"jacket":-0.7443488836288452,"ice":-0.38741162419319153,"cold":-0.46331942081451416,"rain":-0.6842149496078491,"wind":-0.5749765634536743,"cream":0.8573051691055298,"t":0.34189078211784363,"shirt":0.39164209365844727,"hot":0.43097642064094543,"beach":0.4578498303890228,"shorts":0.5408720970153809,"dsa":0.5780145525932312}},"2":{"bias":-0.08051841706037521,"weights":{"jacket":-0.39726340770721436,"ice":-0.3267653286457062,"cold":-0.25222280621528625,"rain":-0.10608968138694763,"wind":-0.27648991346359253,"cream":0.022572768852114677,"t":0.1771014928817749,"shirt":0.07340146601200104,"hot":0.05359381437301636,"beach":0.19041183590888977,"shorts":0.3037509620189667,"dsa":0.18755212426185608}},"3":{"bias":-0.18838417530059814,"weights":{"jacket":-1.2493938207626343,"ice":-0.8979163765907288,"cold":-1.1529816389083862,"rain":-1.0879627466201782,"wind":-1.1614919900894165,"cream":1.8732925653457642,"t":0.7231799364089966,"shirt":0.6471079587936401,"hot":1.3031103610992432,"beach":1.2969721555709839,"shorts":1.2758523225784302,"dsa":1.1618465185165405}},"4":{"bias":-0.19426177442073822,"weights":{"jacket":-1.3000537157058716,"ice":-0.7591126561164856,"cold":-1.136672854423523,"rain":-1.1503031253814697,"wind":-1.0636940002441406,"cream":1.5996661186218262,"t":0.7023118734359741,"shirt":0.8326427340507507,"hot":1.1569260358810425,"beach":1.215928554534912,"shorts":1.0819694995880127,"dsa":1.2778054475784302}},"5":{"bias":0.12746763229370117,"weights":{"jacket":1.3975642919540405,"ice":0.9613530039787292,"cold":1.4262619018554688,"rain":1.3448735475540161,"wind":1.4126462936401367,"cream":-2.1122236251831055,"t":-0.8379152417182922,"shirt":-0.8384223580360413,"hot":-1.295863151550293,"beach":-1.2298372983932495,"shorts":-1.2372888326644897,"dsa":-1.1659129858016968}}},{"Cold weather":{"bias":0.8531474471092224,"weights":{"0":0.6435018181800842,"1":-1.0877854824066162,"2":-0.15125325322151184,"3":-2.879394769668579,"4":-2.685436964035034,"5":3.660719633102417}},"Hot weather":{"bias":-0.8360642790794373,"weights":{"0":-0.9720113277435303,"1":1.2517338991165161,"2":0.34089645743370056,"3":2.792557954788208,"4":2.6704814434051514,"5":-3.5994739532470703}}}],"outputLookup":true,"inputLookup":true,"activation":"sigmoid","trainOpts":{"iterations":20000,"errorThresh":0.005,"log":true,"logPeriod":10,"learningRate":0.3,"momentum":0.1,"callbackPeriod":10}}