{"sizes":[29,14,2],"layers":[{"www":{},"google":{},"com":{},"amazon":{},"openai":{},"ai":{},"example":{},"net":{},"ecom":{},"shop":{},"page":{},"bit":{},"ly":{},"me":{},"kjsgfjwfesas":{},"kjalsfkg":{},"ne":{},"short":{},"en":{},"ui":{},"kalskejfs":{},"my":{},"link":{},"click":{},"a":{},"of":{},"slajidj":{},"slsjef":{},"unsecure":{}},{"0":{"bias":-0.16623343527317047,"weights":{"www":0.07539674639701843,"google":0.06418361514806747,"com":0.3333045542240143,"amazon":0.07763306796550751,"openai":0.1506115198135376,"ai":0.13320434093475342,"example":0.008697105571627617,"net":0.27259060740470886,"ecom":0.30033406615257263,"shop":0.11825551092624664,"page":0.06876454502344131,"bit":-0.30594778060913086,"ly":-0.13577774167060852,"me":-0.05081532523036003,"kjsgfjwfesas":-0.23742924630641937,"kjalsfkg":-0.38850075006484985,"ne":-0.21233534812927246,"short":-0.18243882060050964,"en":-0.043012458831071854,"ui":-0.0329991951584816,"kalskejfs":-0.04720773547887802,"my":0.11510442197322845,"link":0.04799456521868706,"click":-0.08402448892593384,"a":0.07961798459291458,"of":0.10113593935966492,"slajidj":-0.12111816555261612,"slsjef":0.05832552909851074,"unsecure":-0.23500247299671173}},"1":{"bias":0.06931702792644501,"weights":{"www":0.018091734498739243,"google":-0.2846517264842987,"com":-0.49395066499710083,"amazon":-0.16409660875797272,"openai":-0.14029215276241302,"ai":-0.10501952469348907,"example":-0.24868719279766083,"net":0.02224654331803322,"ecom":-0.32674768567085266,"shop":-0.061415497213602066,"page":0.11873333901166916,"bit":0.23786526918411255,"ly":0.032525885850191116,"me":0.3790335953235626,"kjsgfjwfesas":0.0071026538498699665,"kjalsfkg":0.09881358593702316,"ne":0.4624389410018921,"short":0.3139110803604126,"en":0.10869003087282181,"ui":0.22593972086906433,"kalskejfs":0.12483838200569153,"my":0.2507018446922302,"link":0.09647182375192642,"click":0.1725216805934906,"a":0.06240996718406677,"of":0.20235274732112885,"slajidj":0.026591245085000992,"slsjef":0.0976998507976532,"unsecure":0.34975820779800415}},"2":{"bias":0.023976076394319534,"weights":{"www":0.06257029622793198,"google":-0.11409730464220047,"com":-0.5517674684524536,"amazon":-0.20783382654190063,"openai":-0.18026307225227356,"ai":-0.3090445101261139,"example":-0.3452650308609009,"net":-0.30310240387916565,"ecom":-0.22757293283939362,"shop":-0.27410292625427246,"page":-0.11755254119634628,"bit":0.03937089815735817,"ly":0.3384753167629242,"me":0.14855407178401947,"kjsgfjwfesas":0.19084200263023376,"kjalsfkg":0.5004005432128906,"ne":0.406852126121521,"short":0.2712428569793701,"en":0.2972516417503357,"ui":0.21574442088603973,"kalskejfs":0.22701935470104218,"my":0.08251077681779861,"link":0.5175172090530396,"click":0.058754727244377136,"a":0.3002144694328308,"of":0.12826216220855713,"slajidj":0.3014443516731262,"slsjef":0.027749482542276382,"unsecure":0.009591158479452133}},"3":{"bias":-0.13118460774421692,"weights":{"www":-0.021902093663811684,"google":-0.034675706177949905,"com":-0.38940680027008057,"amazon":-0.033689532428979874,"openai":-0.2340846061706543,"ai":-0.20729857683181763,"example":-0.42480647563934326,"net":-0.18350960314273834,"ecom":-0.16626302897930145,"shop":-0.014706476591527462,"page":0.02926146797835827,"bit":0.255779892206192,"ly":0.23695911467075348,"me":0.2534351050853729,"kjsgfjwfesas":0.18602225184440613,"kjalsfkg":0.5495982766151428,"ne":0.2512494623661041,"short":0.04491259902715683,"en":0.28202900290489197,"ui":0.24035987257957458,"kalskejfs":0.13621942698955536,"my":0.20705926418304443,"link":0.48922091722488403,"click":0.28204426169395447,"a":0.043702591210603714,"of":0.26458850502967834,"slajidj":0.05314250662922859,"slsjef":0.27615371346473694,"unsecure":0.22387169301509857}},"4":{"bias":0.12405148148536682,"weights":{"www":-0.2725139260292053,"google":-0.0058739944361150265,"com":-0.10452595353126526,"amazon":0.21220242977142334,"openai":-0.15944232046604156,"ai":0.09940836578607559,"example":-0.004844272509217262,"net":-0.05342412367463112,"ecom":-0.07776566594839096,"shop":0.16986478865146637,"page":0.13763880729675293,"bit":-0.15672579407691956,"ly":-0.20601122081279755,"me":-0.22320513427257538,"kjsgfjwfesas":0.057149600237607956,"kjalsfkg":0.030141988769173622,"ne":-0.2060849815607071,"short":0.0012885507894679904,"en":-0.060836486518383026,"ui":0.08171435445547104,"kalskejfs":0.15545129776000977,"my":-0.055554766207933426,"link":-0.22441266477108002,"click":-0.09279727190732956,"a":-0.01761254109442234,"of":0.1545417308807373,"slajidj":0.087047278881073,"slsjef":0.16086986660957336,"unsecure":0.18062984943389893}},"5":{"bias":-0.17705437541007996,"weights":{"www":0.055962786078453064,"google":-0.011096744798123837,"com":0.41037535667419434,"amazon":-0.05170638486742973,"openai":0.15622004866600037,"ai":0.23165865242481232,"example":0.4165985584259033,"net":0.20153753459453583,"ecom":0.1756526082754135,"shop":0.2339748740196228,"page":0.16069753468036652,"bit":-0.37637200951576233,"ly":-0.08895136415958405,"me":-0.27691102027893066,"kjsgfjwfesas":-0.3206441402435303,"kjalsfkg":-0.20709052681922913,"ne":-0.33961597084999084,"short":-0.10889850556850433,"en":-0.06438347697257996,"ui":-0.20762822031974792,"kalskejfs":-0.1310356855392456,"my":-0.1456737518310547,"link":-0.337368905544281,"click":-0.16119793057441711,"a":0.06005306541919708,"of":-0.025686515495181084,"slajidj":-0.09974654763936996,"slsjef":0.048580996692180634,"unsecure":0.02845468930900097}},"6":{"bias":0.10949235409498215,"weights":{"www":-0.0867643728852272,"google":0.10941268503665924,"com":0.22867536544799805,"amazon":0.28943225741386414,"openai":0.14976641535758972,"ai":0.3897107243537903,"example":0.1426539421081543,"net":-0.0031601095106452703,"ecom":0.34779080748558044,"shop":0.0556463897228241,"page":0.23508970439434052,"bit":-0.2599445581436157,"ly":-0.10807076096534729,"me":-0.5381767749786377,"kjsgfjwfesas":-0.1119004487991333,"kjalsfkg":-0.4024640917778015,"ne":-0.17798124253749847,"short":-0.18524716794490814,"en":-0.3806315064430237,"ui":-0.21175235509872437,"kalskejfs":-0.2466089427471161,"my":0.031810954213142395,"link":-0.1444755494594574,"click":-0.270947128534317,"a":-0.040414728224277496,"of":-0.1483725756406784,"slajidj":-0.14584660530090332,"slsjef":0.029161270707845688,"unsecure":-0.2957240343093872}},"7":{"bias":-0.0011258404701948166,"weights":{"www":-0.059575583785772324,"google":0.24095343053340912,"com":0.25382885336875916,"amazon":0.19144724309444427,"openai":0.09926806390285492,"ai":0.23391108214855194,"example":0.39920660853385925,"net":0.30344006419181824,"ecom":0.08563391864299774,"shop":0.15620610117912292,"page":0.1689131110906601,"bit":-0.29241693019866943,"ly":-0.13372747600078583,"me":-0.17476831376552582,"kjsgfjwfesas":-0.08497238159179688,"kjalsfkg":-0.4898627996444702,"ne":-0.35094258189201355,"short":-0.3056342303752899,"en":-0.1917404979467392,"ui":-0.2916141450405121,"kalskejfs":-0.22344757616519928,"my":-0.048805445432662964,"link":-0.20088154077529907,"click":-0.1302831619977951,"a":-0.2871719002723694,"of":-0.17408618330955505,"slajidj":-0.3056267201900482,"slsjef":-0.23717719316482544,"unsecure":-0.09000025689601898}},"8":{"bias":0.028170067816972733,"weights":{"www":-0.15278320014476776,"google":0.09986579418182373,"com":-0.013360824435949326,"amazon":0.09055250138044357,"openai":-0.15898767113685608,"ai":0.027358178049325943,"example":-0.09424728900194168,"net":-0.09115726500749588,"ecom":-0.18060950934886932,"shop":-0.13471639156341553,"page":-0.14965128898620605,"bit":-0.007012585643678904,"ly":-0.05976457521319389,"me":0.22601622343063354,"kjsgfjwfesas":-0.08376384526491165,"kjalsfkg":-0.018575508147478104,"ne":0.020816246047616005,"short":-0.11323004215955734,"en":0.01858627051115036,"ui":0.023147504776716232,"kalskejfs":0.18910755217075348,"my":0.12944629788398743,"link":-0.08500292152166367,"click":-0.03641892969608307,"a":0.2266872525215149,"of":0.21415959298610687,"slajidj":0.23493097722530365,"slsjef":-0.11903411895036697,"unsecure":-0.07863534986972809}},"9":{"bias":-0.13268989324569702,"weights":{"www":0.03623395785689354,"google":0.3665963113307953,"com":0.6814630627632141,"amazon":0.11724060028791428,"openai":0.30078697204589844,"ai":0.39279311895370483,"example":0.4813966155052185,"net":0.4301868677139282,"ecom":0.26478832960128784,"shop":0.32255131006240845,"page":0.10587313771247864,"bit":-0.3940414786338806,"ly":-0.3958492875099182,"me":-0.4494299590587616,"kjsgfjwfesas":-0.09950420260429382,"kjalsfkg":-0.3226800262928009,"ne":-0.30504122376441956,"short":-0.2839401662349701,"en":-0.13092657923698425,"ui":-0.23982283473014832,"kalskejfs":-0.2492450773715973,"my":0.00576210068538785,"link":-0.33104491233825684,"click":-0.1901591569185257,"a":-0.19102652370929718,"of":-0.3196004033088684,"slajidj":-0.18575279414653778,"slsjef":-0.200750470161438,"unsecure":-0.2636280059814453}},"10":{"bias":0.08776997029781342,"weights":{"www":-0.03634965419769287,"google":-0.16122619807720184,"com":-0.18581727147102356,"amazon":0.017426297068595886,"openai":-0.34437206387519836,"ai":-0.261453777551651,"example":-0.06094784662127495,"net":-0.15341272950172424,"ecom":-0.08083600550889969,"shop":-0.23129652440547943,"page":0.14326165616512299,"bit":0.26645419001579285,"ly":0.2363126575946808,"me":0.38081255555152893,"kjsgfjwfesas":-0.10218025743961334,"kjalsfkg":0.3730775713920593,"ne":0.33134007453918457,"short":0.32506194710731506,"en":0.054883912205696106,"ui":0.2149815708398819,"kalskejfs":-0.002440524520352483,"my":-0.048204079270362854,"link":0.11399533599615097,"click":-0.06348422169685364,"a":0.20206843316555023,"of":0.06076722592115402,"slajidj":0.06809630990028381,"slsjef":0.020898209884762764,"unsecure":0.07723992317914963}},"11":{"bias":-0.16715098917484283,"weights":{"www":-0.009012197144329548,"google":-0.4227607250213623,"com":-0.7105270028114319,"amazon":-0.16910797357559204,"openai":-0.33474525809288025,"ai":-0.47637975215911865,"example":-0.6389737725257874,"net":-0.170595183968544,"ecom":-0.5506874918937683,"shop":-0.23387420177459717,"page":-0.2123716026544571,"bit":0.40542080998420715,"ly":0.3927803039550781,"me":0.4262945353984833,"kjsgfjwfesas":0.3690316379070282,"kjalsfkg":0.6756312847137451,"ne":0.6922861337661743,"short":0.3481401801109314,"en":0.4887131452560425,"ui":0.29625463485717773,"kalskejfs":0.5201231241226196,"my":0.3135101795196533,"link":0.7266761660575867,"click":0.14690811932086945,"a":0.3924364149570465,"of":0.27164655923843384,"slajidj":0.143894761800766,"slsjef":0.14859913289546967,"unsecure":0.2219109684228897}},"12":{"bias":0.01974017731845379,"weights":{"www":0.08076691627502441,"google":0.42911261320114136,"com":0.7438408732414246,"amazon":0.38191476464271545,"openai":0.26858407258987427,"ai":0.30014148354530334,"example":0.3684578835964203,"net":0.3073727488517761,"ecom":0.4803723096847534,"shop":0.44880205392837524,"page":0.0003569725377019495,"bit":-0.4872789680957794,"ly":-0.22929643094539642,"me":-0.5050216913223267,"kjsgfjwfesas":-0.46381834149360657,"kjalsfkg":-0.6133435368537903,"ne":-0.6477203965187073,"short":-0.5200209617614746,"en":-0.35475313663482666,"ui":-0.2437533736228943,"kalskejfs":-0.3062630593776703,"my":-0.2607165575027466,"link":-0.5490002632141113,"click":-0.21240133047103882,"a":-0.33754289150238037,"of":-0.1480284035205841,"slajidj":-0.2970348298549652,"slsjef":-0.3251050114631653,"unsecure":-0.393308162689209}},"13":{"bias":-0.07114923745393753,"weights":{"www":0.25484147667884827,"google":0.24038884043693542,"com":0.8684766888618469,"amazon":0.5215212106704712,"openai":0.6536974906921387,"ai":0.5194811820983887,"example":0.6170944571495056,"net":0.28168410062789917,"ecom":0.35083863139152527,"shop":0.5546826720237732,"page":0.2643332779407501,"bit":-0.5940725803375244,"ly":-0.3040209114551544,"me":-0.8152334690093994,"kjsgfjwfesas":-0.3153451979160309,"kjalsfkg":-0.6278738379478455,"ne":-0.8254926800727844,"short":-0.5857117176055908,"en":-0.30363729596138,"ui":-0.5216436386108398,"kalskejfs":-0.4530406892299652,"my":-0.24018494784832,"link":-0.6939978003501892,"click":-0.1039731502532959,"a":-0.19473573565483093,"of":-0.3781636357307434,"slajidj":-0.3745901584625244,"slsjef":-0.1873779147863388,"unsecure":-0.35448113083839417}}},{"secure":{"bias":-0.37750115990638733,"weights":{"0":0.39208322763442993,"1":-0.8905580043792725,"2":-1.0343091487884521,"3":-0.8912654519081116,"4":0.07372063398361206,"5":0.5702140927314758,"6":0.793588399887085,"7":0.7302597761154175,"8":-0.22864700853824615,"9":1.1304447650909424,"10":-0.5746530890464783,"11":-1.7291667461395264,"12":1.4157429933547974,"13":1.981573462486267}},"unsecure":{"bias":0.2760029733181,"weights":{"0":-0.4093402624130249,"1":0.7110433578491211,"2":1.1024631261825562,"3":0.9963762164115906,"4":0.035127099603414536,"5":-0.6980461478233337,"6":-0.6085506081581116,"7":-0.8144428730010986,"8":0.20079593360424042,"9":-1.0518684387207031,"10":0.7614418864250183,"11":1.7099710702896118,"12":-1.6285154819488525,"13":-1.857860803604126}}}],"outputLookup":true,"inputLookup":true,"activation":"sigmoid","trainOpts":{"iterations":20000,"errorThresh":0.005,"log":true,"logPeriod":10,"learningRate":0.3,"momentum":0.1,"callbackPeriod":10}}