{"sizes":[13,6,2],"layers":[{"hello":{},"how":{},"can":{},"i":{},"assist":{},"you":{},"hi":{},"bonjour":{},"good":{},"and":{},"fine":{},"great":{},"doing":{}},{"0":{"bias":-0.025686919689178467,"weights":{"hello":-1.1111432313919067,"how":-0.5260108709335327,"can":-0.5618247985839844,"i":-0.5843268632888794,"assist":-0.6444308161735535,"you":0.2091526985168457,"hi":-1.4542237520217896,"bonjour":-0.9859462380409241,"good":1.3635308742523193,"and":0.4981892704963684,"fine":1.4380111694335938,"great":1.5611531734466553,"doing":0.7502418756484985}},"1":{"bias":-0.1702057421207428,"weights":{"hello":-0.08786120265722275,"how":0.20561930537223816,"can":-0.007499105762690306,"i":0.29150694608688354,"assist":0.04087872803211212,"you":-0.08440099656581879,"hi":-0.0013494318118318915,"bonjour":0.062065791338682175,"good":-0.3077758550643921,"and":0.001988618867471814,"fine":-0.04672636464238167,"great":-0.1482788771390915,"doing":-0.13440261781215668}},"2":{"bias":-0.18697312474250793,"weights":{"hello":0.2462683767080307,"how":0.27793094515800476,"can":0.25908163189888,"i":0.3707914352416992,"assist":0.12525047361850739,"you":0.010766026563942432,"hi":0.3791927993297577,"bonjour":0.34598734974861145,"good":-0.615191638469696,"and":-0.4871225357055664,"fine":-0.6174043416976929,"great":-0.6449998617172241,"doing":-0.2997543513774872}},"3":{"bias":0.04559755325317383,"weights":{"hello":0.25335070490837097,"how":0.1127014234662056,"can":0.035738952457904816,"i":0.03367701917886734,"assist":0.09003543108701706,"you":-0.22341209650039673,"hi":0.18188203871250153,"bonjour":0.14568687975406647,"good":-0.23338018357753754,"and":-0.20674780011177063,"fine":-0.18928447365760803,"great":-0.16093477606773376,"doing":-0.2465323507785797}},"4":{"bias":-0.06482621282339096,"weights":{"hello":0.12530317902565002,"how":0.000685684964992106,"can":0.069175586104393,"i":-0.0039447578601539135,"assist":0.056273769587278366,"you":-0.18292196094989777,"hi":0.10932090133428574,"bonjour":0.042709361761808395,"good":-0.5012391805648804,"and":-0.2926209568977356,"fine":-0.18602091073989868,"great":-0.37616172432899475,"doing":-0.3267689645290375}},"5":{"bias":0.052200932055711746,"weights":{"hello":1.5691269636154175,"how":0.8369669914245605,"can":0.7614933848381042,"i":0.6446308493614197,"assist":0.816350519657135,"you":-0.3120467960834503,"hi":1.9060182571411133,"bonjour":1.565390944480896,"good":-1.6129921674728394,"and":-0.9411313533782959,"fine":-2.0497145652770996,"great":-1.8875285387039185,"doing":-0.8988938927650452}}},{"hello":{"bias":-0.7864336371421814,"weights":{"0":-2.997103452682495,"1":0.05767367407679558,"2":0.9358421564102173,"3":0.17454317212104797,"4":0.30003976821899414,"5":3.805281162261963}},"how are you":{"bias":0.6938353180885315,"weights":{"0":3.0374608039855957,"1":-0.03222358599305153,"2":-0.7283614873886108,"3":-0.22474709153175354,"4":-0.2793222665786743,"5":-3.82795786857605}}}],"outputLookup":true,"inputLookup":true,"activation":"sigmoid","trainOpts":{"iterations":20000,"errorThresh":0.005,"log":true,"logPeriod":10,"learningRate":0.3,"momentum":0.1,"callbackPeriod":10}}