{"sizes":[13,6,2],"layers":[{"hello":{},"how":{},"can":{},"i":{},"assist":{},"you":{},"hi":{},"bonjour":{},"good":{},"and":{},"fine":{},"great":{},"doing":{}},{"0":{"bias":-0.12303190678358078,"weights":{"hello":0.9344099164009094,"how":0.5380352139472961,"can":0.32796525955200195,"i":0.370967835187912,"assist":0.6866388916969299,"you":-0.23594219982624054,"hi":1.1931896209716797,"bonjour":1.040388584136963,"good":-1.078070044517517,"and":-0.6312084197998047,"fine":-1.101028323173523,"great":-1.1630209684371948,"doing":-0.6714262366294861}},"1":{"bias":-0.2353203445672989,"weights":{"hello":0.581902801990509,"how":0.27599647641181946,"can":0.32067111134529114,"i":0.4375236928462982,"assist":0.14648663997650146,"you":-0.031100286170840263,"hi":0.511476457118988,"bonjour":0.31401172280311584,"good":-0.5847784876823425,"and":-0.40404242277145386,"fine":-0.69443279504776,"great":-0.7117177248001099,"doing":-0.4463912546634674}},"2":{"bias":-0.1504020243883133,"weights":{"hello":-0.11279269307851791,"how":-0.0018417624523863196,"can":-0.04404227063059807,"i":0.01916893757879734,"assist":0.1882517784833908,"you":-0.022006364539265633,"hi":-0.074870765209198,"bonjour":0.23191837966442108,"good":-0.286906898021698,"and":0.07520677894353867,"fine":0.06927667558193207,"great":-0.23665985465049744,"doing":0.012673127464950085}},"3":{"bias":-0.23666170239448547,"weights":{"hello":0.49718043208122253,"how":0.23081481456756592,"can":0.10812067985534668,"i":0.5007988214492798,"assist":0.3719913959503174,"you":-0.22140288352966309,"hi":0.7335017323493958,"bonjour":0.33621087670326233,"good":-0.6703360080718994,"and":-0.2609325349330902,"fine":-0.760644793510437,"great":-0.639863908290863,"doing":-0.18676921725273132}},"4":{"bias":-0.15529632568359375,"weights":{"hello":0.7184295058250427,"how":0.27782922983169556,"can":0.34231871366500854,"i":0.5274089574813843,"assist":0.6190664768218994,"you":-0.11526918411254883,"hi":1.023119330406189,"bonjour":0.8016995787620544,"good":-0.9164901971817017,"and":-0.47892919182777405,"fine":-0.9868140816688538,"great":-1.0902810096740723,"doing":-0.4245385527610779}},"5":{"bias":-0.07070956379175186,"weights":{"hello":-1.3444470167160034,"how":-0.592416524887085,"can":-0.6871109008789062,"i":-0.5973866581916809,"assist":-0.48457974195480347,"you":0.16350437700748444,"hi":-1.5796637535095215,"bonjour":-1.294667363166809,"good":1.4741005897521973,"and":0.7790315747261047,"fine":1.8465100526809692,"great":1.751307725906372,"doing":0.8710170388221741}}},{"hello":{"bias":-0.520106852054596,"weights":{"0":1.9520362615585327,"1":1.134426236152649,"2":0.004533202853053808,"3":1.0150243043899536,"4":1.646305799484253,"5":-3.6362059116363525}},"how are you":{"bias":0.5653433799743652,"weights":{"0":-2.181885242462158,"1":-0.8699420094490051,"2":0.10041311383247375,"3":-1.0326974391937256,"4":-1.7360551357269287,"5":3.541778326034546}}}],"outputLookup":true,"inputLookup":true,"activation":"sigmoid","trainOpts":{"iterations":20000,"errorThresh":0.005,"log":true,"logPeriod":10,"learningRate":0.3,"momentum":0.1,"callbackPeriod":10}}