{"sizes":[25,12,2],"layers":[{"0":{},"7":{},"10":{},"19":{},"20":{},"21":{},"27":{},"30":{},"38":{},"44":{},"53":{},"55":{},"59":{},"60":{},"63":{},"65":{},"66":{},"69":{},"70":{},"72":{},"83":{},"87":{},"90":{},"97":{},"100":{}},{"0":{"bias":-0.19908833503723145,"weights":{"0":0.19787995517253876,"7":0.17880816757678986,"10":0.06698059290647507,"19":-0.054780274629592896,"20":0.17375293374061584,"21":0.02309504710137844,"27":0.06400300562381744,"30":0.01640191674232483,"38":0.24389922618865967,"44":0.1763884723186493,"53":0.28701555728912354,"55":-0.02721138671040535,"59":-0.040962573140859604,"60":-0.24376876652240753,"63":0.09397242218255997,"65":0.09191210567951202,"66":-0.2528224587440491,"69":0.031664784997701645,"70":-0.33801349997520447,"72":-0.038489773869514465,"83":-0.059220049530267715,"87":0.056957341730594635,"90":-0.32534855604171753,"97":-0.22374585270881653,"100":-0.026051657274365425}},"1":{"bias":-0.09704748541116714,"weights":{"0":0.06484746187925339,"7":0.13642306625843048,"10":0.04746284335851669,"19":0.2296379804611206,"20":0.09638721495866776,"21":0.2892707586288452,"27":0.07703565806150436,"30":-0.15447162091732025,"38":0.10482104867696762,"44":0.06836648285388947,"53":0.07963449507951736,"55":-0.11648523062467575,"59":-0.12401249259710312,"60":-0.24288228154182434,"63":0.1358276605606079,"65":-0.16056287288665771,"66":-0.05502988025546074,"69":0.02584945596754551,"70":-0.18930335342884064,"72":-0.02771429531276226,"83":-0.0138904033228755,"87":-0.13308396935462952,"90":-0.11426840722560883,"97":-0.1120033711194992,"100":-0.23096325993537903}},"2":{"bias":0.01467087771743536,"weights":{"0":0.6191004514694214,"7":0.5604113936424255,"10":0.5973776578903198,"19":0.614267885684967,"20":0.8321167230606079,"21":0.8073784112930298,"27":0.7684547305107117,"30":0.7942520380020142,"38":0.7953142523765564,"44":0.7755188941955566,"53":0.7492876052856445,"55":0.8261960744857788,"59":0.801950991153717,"60":-0.7688592672348022,"63":-0.7226776480674744,"65":-0.8231847882270813,"66":-0.7812524437904358,"69":-0.5183826088905334,"70":-0.9704582095146179,"72":-0.7836068868637085,"83":-0.9163815379142761,"87":-0.5766404867172241,"90":-0.8034487366676331,"97":-0.6229305267333984,"100":-0.7253196835517883}},"3":{"bias":-0.11230531334877014,"weights":{"0":-0.6400623917579651,"7":-0.23669672012329102,"10":-0.48685422539711,"19":-0.21867407858371735,"20":-0.3695046305656433,"21":-0.38790854811668396,"27":-0.31765738129615784,"30":-0.5828580856323242,"38":-0.2817520499229431,"44":-0.4831082224845886,"53":-0.38166531920433044,"55":-0.3925034701824188,"59":-0.5509058833122253,"60":0.2809945344924927,"63":0.42312511801719666,"65":0.49959659576416016,"66":0.4730392396450043,"69":0.30298659205436707,"70":0.201017826795578,"72":0.5641445517539978,"83":0.2096087783575058,"87":0.31749477982521057,"90":0.4764491617679596,"97":0.3100805878639221,"100":0.25200197100639343}},"4":{"bias":-0.019693782553076744,"weights":{"0":0.06402340531349182,"7":0.08439882099628448,"10":0.22492444515228271,"19":0.2734585106372833,"20":0.10889381170272827,"21":0.14526055753231049,"27":0.06055397540330887,"30":-0.0838061273097992,"38":0.07905209064483643,"44":0.09991148114204407,"53":0.38713589310646057,"55":0.04839687421917915,"59":0.3036753237247467,"60":-0.3351638913154602,"63":-0.07050206512212753,"65":-0.3120991587638855,"66":-0.3083610534667969,"69":-0.12476813793182373,"70":-0.2872227728366852,"72":-0.1216944083571434,"83":-0.29043906927108765,"87":-0.025013994425535202,"90":-0.4282110035419464,"97":-0.22390717267990112,"100":-0.22916951775550842}},"5":{"bias":-0.14680442214012146,"weights":{"0":-0.6364789009094238,"7":-0.19011515378952026,"10":-0.5218890905380249,"19":-0.4280461072921753,"20":-0.3464568555355072,"21":-0.30715933442115784,"27":-0.30009791254997253,"30":-0.6578027009963989,"38":-0.2639056146144867,"44":-0.5032574534416199,"53":-0.5846964716911316,"55":-0.588272750377655,"59":-0.2868848443031311,"60":0.4493761658668518,"63":0.3135494887828827,"65":0.38705694675445557,"66":0.40325236320495605,"69":0.38016775250434875,"70":0.2782990336418152,"72":0.4994499087333679,"83":0.2541414499282837,"87":0.4912213981151581,"90":0.4466497004032135,"97":0.6016606688499451,"100":0.5823417901992798}},"6":{"bias":0.027978163212537766,"weights":{"0":0.6485788226127625,"7":0.6647973656654358,"10":0.49747222661972046,"19":0.7277488112449646,"20":0.6739968657493591,"21":0.36892008781433105,"27":0.5455639958381653,"30":0.6218884587287903,"38":0.47009870409965515,"44":0.369539350271225,"53":0.39219972491264343,"55":0.6288719773292542,"59":0.5731397271156311,"60":-0.8078012466430664,"63":-0.5388842225074768,"65":-0.6558113694190979,"66":-0.5203742980957031,"69":-0.42507773637771606,"70":-0.9005798101425171,"72":-0.34966740012168884,"83":-0.8159375786781311,"87":-0.4126538932323456,"90":-0.7461865544319153,"97":-0.7260464429855347,"100":-0.5952191948890686}},"7":{"bias":0.023232391104102135,"weights":{"0":0.6331056356430054,"7":0.49813276529312134,"10":0.6672255396842957,"19":0.5947386026382446,"20":0.44604042172431946,"21":0.5522713661193848,"27":0.7103107571601868,"30":0.5788630843162537,"38":0.7468734383583069,"44":0.40805989503860474,"53":0.7797784209251404,"55":0.6353620290756226,"59":0.4471370279788971,"60":-0.8245082497596741,"63":-0.4178405702114105,"65":-0.5492867827415466,"66":-0.44561102986335754,"69":-0.6093114614486694,"70":-0.748732328414917,"72":-0.5996614694595337,"83":-0.9414003491401672,"87":-0.624083399772644,"90":-0.593664288520813,"97":-0.5913457870483398,"100":-0.6347110271453857}},"8":{"bias":-0.06766535341739655,"weights":{"0":-0.7427113056182861,"7":-0.6142235398292542,"10":-0.8803822994232178,"19":-0.5870997309684753,"20":-0.5286090970039368,"21":-0.5547133684158325,"27":-0.7427744269371033,"30":-0.739104151725769,"38":-0.7220264673233032,"44":-0.5705962777137756,"53":-0.6702159643173218,"55":-0.774669885635376,"59":-0.7739473581314087,"60":0.648533284664154,"63":0.5882845520973206,"65":0.48966771364212036,"66":0.6117374300956726,"69":0.8334248065948486,"70":0.8276796936988831,"72":0.7588563561439514,"83":0.6718112826347351,"87":0.5843496918678284,"90":0.8053030967712402,"97":0.8274278044700623,"100":0.8425386548042297}},"9":{"bias":-0.09524054080247879,"weights":{"0":-0.9779157638549805,"7":-0.6842768788337708,"10":-1.0416491031646729,"19":-0.6947696805000305,"20":-0.6379551291465759,"21":-0.7623133063316345,"27":-0.8250790238380432,"30":-1.0180163383483887,"38":-0.8969735503196716,"44":-0.8390581607818604,"53":-0.7133061289787292,"55":-0.795437753200531,"59":-1.0092705488204956,"60":1.0143967866897583,"63":0.940285861492157,"65":1.000400185585022,"66":1.022051215171814,"69":0.8874885439872742,"70":0.8997679352760315,"72":0.8124161958694458,"83":0.9824244379997253,"87":1.1020877361297607,"90":0.8862858414649963,"97":0.8059917092323303,"100":0.9217798709869385}},"10":{"bias":-0.10880791395902634,"weights":{"0":0.005714490544050932,"7":0.10168064385652542,"10":0.24273842573165894,"19":0.19786636531352997,"20":0.09685457497835159,"21":-0.004483410622924566,"27":0.0029342558700591326,"30":0.03265351057052612,"38":0.3314710855484009,"44":0.28428053855895996,"53":0.20670747756958008,"55":0.05997409671545029,"59":0.25098177790641785,"60":-0.20881228148937225,"63":-0.26784074306488037,"65":-0.14348304271697998,"66":-0.27014583349227905,"69":-0.07901758700609207,"70":-0.260532408952713,"72":-0.23616120219230652,"83":-0.402718186378479,"87":-0.1088264212012291,"90":-0.22699861228466034,"97":-0.04647429287433624,"100":-0.19230039417743683}},"11":{"bias":-0.16090455651283264,"weights":{"0":-0.5513678789138794,"7":-0.43725520372390747,"10":-0.41579973697662354,"19":-0.39789479970932007,"20":-0.3281806707382202,"21":-0.34475284814834595,"27":-0.16063641011714935,"30":-0.48373302817344666,"38":-0.22054541110992432,"44":-0.3203415870666504,"53":-0.3403741121292114,"55":-0.42320045828819275,"59":-0.5264601707458496,"60":0.36847245693206787,"63":0.3969922661781311,"65":0.4566850960254669,"66":0.3186141848564148,"69":0.3335820734500885,"70":0.1531090885400772,"72":0.3235655128955841,"83":0.41117528080940247,"87":0.32468682527542114,"90":0.4391516447067261,"97":0.5407132506370544,"100":0.4566863179206848}}},{"good grade":{"bias":-0.29858484864234924,"weights":{"0":-0.35593700408935547,"1":-0.31921324133872986,"2":-2.5516512393951416,"3":1.2706332206726074,"4":-0.7443748712539673,"5":1.4972209930419922,"6":-2.1268436908721924,"7":-2.3504745960235596,"8":2.557365894317627,"9":3.1404645442962646,"10":-0.5159124135971069,"11":1.2214597463607788}},"bad grade":{"bias":0.23116928339004517,"weights":{"0":0.42611607909202576,"1":0.27476978302001953,"2":2.8000404834747314,"3":-1.3519691228866577,"4":0.6180768609046936,"5":-1.4552198648452759,"6":2.1423418521881104,"7":2.076785087585449,"8":-2.3172404766082764,"9":-3.174137830734253,"10":0.7517954707145691,"11":-1.3712084293365479}}}],"outputLookup":true,"inputLookup":true,"activation":"sigmoid","trainOpts":{"iterations":20000,"errorThresh":0.005,"log":true,"logPeriod":10,"learningRate":0.3,"momentum":0.1,"callbackPeriod":10}}