{"sizes":[13,6,2],"layers":[{"hello":{},"how":{},"can":{},"i":{},"assist":{},"you":{},"hi":{},"bonjour":{},"good":{},"and":{},"fine":{},"great":{},"doing":{}},{"0":{"bias":-0.23049555718898773,"weights":{"hello":0.8928994536399841,"how":0.52403324842453,"can":0.5662933588027954,"i":0.5195475220680237,"assist":0.27699074149131775,"you":-0.2539674937725067,"hi":1.1427388191223145,"bonjour":0.63664311170578,"good":-1.0282652378082275,"and":-0.4182202219963074,"fine":-1.2355506420135498,"great":-1.179036021232605,"doing":-0.5157642960548401}},"1":{"bias":-0.38080713152885437,"weights":{"hello":0.6448218822479248,"how":0.23878030478954315,"can":0.19506283104419708,"i":0.4544713497161865,"assist":0.4615035653114319,"you":0.06174856424331665,"hi":0.6216426491737366,"bonjour":0.5555070638656616,"good":-0.9507272839546204,"and":-0.4575246572494507,"fine":-0.8699567317962646,"great":-0.7162524461746216,"doing":-0.3693419098854065}},"2":{"bias":-0.1010884940624237,"weights":{"hello":1.160340428352356,"how":0.4049812853336334,"can":0.5223010182380676,"i":0.6608632206916809,"assist":0.6309089660644531,"you":-0.21996107697486877,"hi":1.3645741939544678,"bonjour":1.2357343435287476,"good":-1.4457987546920776,"and":-0.6515114903450012,"fine":-1.5103901624679565,"great":-1.6634063720703125,"doing":-0.6502744555473328}},"3":{"bias":-0.26757827401161194,"weights":{"hello":0.5231205224990845,"how":0.18594717979431152,"can":0.17410525679588318,"i":0.29222923517227173,"assist":0.21509681642055511,"you":-0.04610297828912735,"hi":0.7686134576797485,"bonjour":0.39083248376846313,"good":-0.685493528842926,"and":-0.567969560623169,"fine":-0.8772785067558289,"great":-0.6796209812164307,"doing":-0.448813796043396}},"4":{"bias":-0.2720329463481903,"weights":{"hello":0.6842199563980103,"how":0.28549492359161377,"can":0.4380103051662445,"i":0.5387884378433228,"assist":0.5490912199020386,"you":-0.0036819844972342253,"hi":1.1773693561553955,"bonjour":0.7520979046821594,"good":-1.1251095533370972,"and":-0.7117201089859009,"fine":-1.1788548231124878,"great":-1.0076619386672974,"doing":-0.5057101845741272}},"5":{"bias":0.25339841842651367,"weights":{"hello":-0.8384320139884949,"how":-0.15191175043582916,"can":-0.4547394812107086,"i":-0.16638459265232086,"assist":-0.19292715191841125,"you":-0.02166254259645939,"hi":-0.8818740844726562,"bonjour":-0.88059002161026,"good":0.9925732612609863,"and":0.45898789167404175,"fine":1.0476093292236328,"great":1.0983519554138184,"doing":0.5422112941741943}}},{"hello":{"bias":-1.8084800243377686,"weights":{"0":1.514960527420044,"1":1.0586843490600586,"2":2.6216609477996826,"3":1.0293766260147095,"4":1.633390188217163,"5":-2.3796353340148926}},"how are you":{"bias":1.8890339136123657,"weights":{"0":-1.8825998306274414,"1":-1.1321073770523071,"2":-2.3913824558258057,"3":-0.8215721845626831,"4":-1.7090855836868286,"5":2.284806728363037}}}],"outputLookup":true,"inputLookup":true,"activation":"sigmoid","trainOpts":{"iterations":20000,"errorThresh":0.005,"log":true,"logPeriod":10,"learningRate":0.3,"momentum":0.1,"callbackPeriod":10}}