{"sizes":[22,11,2],"layers":[{"jacket":{},"snowman":{},"snow":{},"ice":{},"cold":{},"boots":{},"bonnet":{},"scarf":{},"rain":{},"wind":{},"shorts":{},"cream":{},"t":{},"shirt":{},"sunny":{},"beach":{},"hot":{},"iced":{},"coffee":{},"swimming":{},"air":{},"conditioner":{}},{"0":{"bias":-0.14476440846920013,"weights":{"jacket":-1.0991414785385132,"snowman":-1.0030015707015991,"snow":-1.0264745950698853,"ice":-0.5382082462310791,"cold":-0.7716823816299438,"boots":-0.8278442025184631,"bonnet":-0.6734874844551086,"scarf":-0.8159353733062744,"rain":-0.669075608253479,"wind":-0.5722574591636658,"shorts":1.1920281648635864,"cream":1.4752730131149292,"t":0.6914575695991516,"shirt":0.6073564291000366,"sunny":1.0606597661972046,"beach":1.221239447593689,"hot":1.1254216432571411,"iced":0.6603044271469116,"coffee":0.6815457940101624,"swimming":1.0272042751312256,"air":0.6974507570266724,"conditioner":0.5585811138153076}},"1":{"bias":-0.2654402554035187,"weights":{"jacket":-0.24564337730407715,"snowman":-0.20786583423614502,"snow":0.08722788840532303,"ice":-0.14392180740833282,"cold":-0.016669347882270813,"boots":0.11546151340007782,"bonnet":-0.06289754807949066,"scarf":-0.09009528160095215,"rain":0.008137375116348267,"wind":0.24834376573562622,"shorts":-0.288870632648468,"cream":-0.023964738473296165,"t":-0.020548300817608833,"shirt":0.06643202155828476,"sunny":-0.011595286428928375,"beach":-0.1584911048412323,"hot":0.010785306803882122,"iced":-0.17125558853149414,"coffee":-0.031185518950223923,"swimming":-0.030587928369641304,"air":0.0516667477786541,"conditioner":-0.05654577538371086}},"2":{"bias":-0.03695109114050865,"weights":{"jacket":-0.2727433443069458,"snowman":-0.15325988829135895,"snow":-0.118205226957798,"ice":-0.05101022869348526,"cold":0.04128548502922058,"boots":-0.16805434226989746,"bonnet":0.012300865724682808,"scarf":-0.05553993210196495,"rain":-0.00064714381005615,"wind":0.019700773060321808,"shorts":-0.09282130002975464,"cream":-0.0011822230881080031,"t":0.17063409090042114,"shirt":0.04861282557249069,"sunny":0.19924014806747437,"beach":0.12622809410095215,"hot":0.024288997054100037,"iced":-0.006242974661290646,"coffee":0.2731724977493286,"swimming":0.16079650819301605,"air":0.004251603502780199,"conditioner":0.12233555316925049}},"3":{"bias":-0.04815636947751045,"weights":{"jacket":0.5752325654029846,"snowman":0.7142072916030884,"snow":0.5208460092544556,"ice":0.1413184404373169,"cold":0.5201217532157898,"boots":0.5277448892593384,"bonnet":0.6122220158576965,"scarf":0.6391807794570923,"rain":0.5981820225715637,"wind":0.6580379009246826,"shorts":-0.8467657566070557,"cream":-0.9380813837051392,"t":-0.44350263476371765,"shirt":-0.48098212480545044,"sunny":-0.639519214630127,"beach":-0.5271697640419006,"hot":-0.7438395619392395,"iced":-0.23680588603019714,"coffee":-0.3889801800251007,"swimming":-0.4796711504459381,"air":-0.5074337124824524,"conditioner":-0.3896086513996124}},"4":{"bias":-0.2266702950000763,"weights":{"jacket":-0.07882248610258102,"snowman":-0.010441094636917114,"snow":-0.25954917073249817,"ice":-0.016885345801711082,"cold":-0.2169938087463379,"boots":-0.18757866322994232,"bonnet":-0.026112373918294907,"scarf":-0.08293185383081436,"rain":-0.12780797481536865,"wind":0.06282421201467514,"shorts":-0.2269817292690277,"cream":-0.11419298499822617,"t":-0.0899224728345871,"shirt":0.09334640204906464,"sunny":-0.08416147530078888,"beach":0.212847039103508,"hot":-0.10842616856098175,"iced":0.20726916193962097,"coffee":-0.03625526279211044,"swimming":0.017982743680477142,"air":-0.10868282616138458,"conditioner":0.24958348274230957}},"5":{"bias":0.1775459349155426,"weights":{"jacket":0.9553238749504089,"snowman":0.8751214742660522,"snow":0.8174881339073181,"ice":0.49613088369369507,"cold":0.8542393445968628,"boots":0.9332199692726135,"bonnet":0.9543197751045227,"scarf":0.8750337958335876,"rain":0.7646492719650269,"wind":0.8015784621238708,"shorts":-1.447461724281311,"cream":-1.6716848611831665,"t":-0.8716701865196228,"shirt":-0.6424196362495422,"sunny":-1.17917001247406,"beach":-1.2555954456329346,"hot":-1.0997473001480103,"iced":-0.5411629676818848,"coffee":-0.7619073390960693,"swimming":-1.1218234300613403,"air":-0.48736825585365295,"conditioner":-0.7062968015670776}},"6":{"bias":-0.10885923355817795,"weights":{"jacket":-0.6338952779769897,"snowman":-0.8382225632667542,"snow":-0.7567487955093384,"ice":-0.5294901132583618,"cold":-0.7138020396232605,"boots":-0.5870625972747803,"bonnet":-0.631216824054718,"scarf":-0.4323004186153412,"rain":-0.5123544335365295,"wind":-0.7073981761932373,"shorts":0.7396965622901917,"cream":1.2908377647399902,"t":0.5177095532417297,"shirt":0.4978471100330353,"sunny":0.9335623383522034,"beach":0.9312337636947632,"hot":0.9076271057128906,"iced":0.35678842663764954,"coffee":0.6693706512451172,"swimming":0.9196531176567078,"air":0.5980527997016907,"conditioner":0.5234108567237854}},"7":{"bias":-0.2972552180290222,"weights":{"jacket":-0.14130201935768127,"snowman":-0.08662480115890503,"snow":0.029480254277586937,"ice":-0.31119146943092346,"cold":-0.148335799574852,"boots":-0.09657256305217743,"bonnet":-0.15937753021717072,"scarf":-0.09908218681812286,"rain":-0.07839035987854004,"wind":-0.07476082444190979,"shorts":0.1569105088710785,"cream":0.041047777980566025,"t":0.018227828666567802,"shirt":-0.10462207347154617,"sunny":0.04014920815825462,"beach":0.1277022361755371,"hot":0.05970959737896919,"iced":0.09543953090906143,"coffee":-0.06187707558274269,"swimming":0.23678381741046906,"air":0.062655508518219,"conditioner":-0.058954931795597076}},"8":{"bias":-0.26636260747909546,"weights":{"jacket":0.21344973146915436,"snowman":0.1375175267457962,"snow":0.23847997188568115,"ice":-0.12522992491722107,"cold":0.05239568278193474,"boots":0.28097471594810486,"bonnet":0.0367007851600647,"scarf":0.13659264147281647,"rain":0.20246052742004395,"wind":0.2684575021266937,"shorts":-0.26574450731277466,"cream":-0.41131263971328735,"t":-0.004972995724529028,"shirt":-0.21998178958892822,"sunny":-0.3835808336734772,"beach":-0.19663415849208832,"hot":-0.05001752823591232,"iced":-0.013560938648879528,"coffee":-0.25230923295021057,"swimming":-0.06794755905866623,"air":0.0444108210504055,"conditioner":0.1252318024635315}},"9":{"bias":0.04717491194605827,"weights":{"jacket":0.563709020614624,"snowman":0.44283467531204224,"snow":0.7516123056411743,"ice":0.3620399534702301,"cold":0.6924725770950317,"boots":0.40650126338005066,"bonnet":0.5504900217056274,"scarf":0.6216610074043274,"rain":0.5949834585189819,"wind":0.4499182403087616,"shorts":-0.8394722938537598,"cream":-0.9527266025543213,"t":-0.5314999222755432,"shirt":-0.6531524062156677,"sunny":-0.8943450450897217,"beach":-0.68487948179245,"hot":-0.7111288905143738,"iced":-0.5153411030769348,"coffee":-0.46559369564056396,"swimming":-0.8517600297927856,"air":-0.5565657615661621,"conditioner":-0.4091060757637024}},"10":{"bias":-0.05400797724723816,"weights":{"jacket":-0.46739625930786133,"snowman":-0.28587132692337036,"snow":-0.19324731826782227,"ice":-0.4124615490436554,"cold":-0.306626558303833,"boots":-0.3944655656814575,"bonnet":-0.25389158725738525,"scarf":-0.28274139761924744,"rain":-0.3523103892803192,"wind":-0.16670773923397064,"shorts":0.1315368413925171,"cream":0.559163510799408,"t":0.3039906322956085,"shirt":0.1894136518239975,"sunny":0.3273412585258484,"beach":0.2829706370830536,"hot":0.5565844178199768,"iced":0.39733970165252686,"coffee":0.15841984748840332,"swimming":0.38100263476371765,"air":0.23993852734565735,"conditioner":0.0700925812125206}}},{"cold weather":{"bias":-0.11888221651315689,"weights":{"0":-3.121849775314331,"1":-0.08647393435239792,"2":-0.21213005483150482,"3":1.9858421087265015,"4":-0.05183637887239456,"5":3.255641460418701,"6":-2.350004196166992,"7":-0.32352790236473083,"8":0.3252694010734558,"9":2.074510335922241,"10":-0.9597244262695312}},"hot weather":{"bias":0.03552752360701561,"weights":{"0":3.0239832401275635,"1":-0.18276222050189972,"2":0.35914307832717896,"3":-1.7491053342819214,"4":0.19281139969825745,"5":-3.2055866718292236,"6":2.505667209625244,"7":0.25567182898521423,"8":-0.6760818958282471,"9":-2.0747218132019043,"10":1.1126084327697754}}}],"outputLookup":true,"inputLookup":true,"activation":"sigmoid","trainOpts":{"iterations":20000,"errorThresh":0.005,"log":true,"logPeriod":10,"learningRate":0.3,"momentum":0.1,"callbackPeriod":10}}