{"sizes":[20,10,3],"layers":[{"good":{},"amazing":{},"awesome":{},"incredible":{},"i":{},"love":{},"you":{},"this":{},"is":{},"great":{},"bad":{},"terrible":{},"awful":{},"disgusting":{},"shameful":{},"normal":{},"okay":{},"fine":{},"not":{},"rawaa":{}},{"0":{"bias":-0.057134486734867096,"weights":{"good":-0.050446417182683945,"amazing":0.10049764811992645,"awesome":0.15666507184505463,"incredible":0.0761791244149208,"i":0.20248785614967346,"love":-0.06664830446243286,"you":-0.11152169853448868,"this":0.004317395854741335,"is":0.02809554524719715,"great":-0.041070178151130676,"bad":-0.08268604427576065,"terrible":-0.2377038449048996,"awful":-0.04378758370876312,"disgusting":-0.18286658823490143,"shameful":-0.09389746189117432,"normal":0.1326887160539627,"okay":0.09333767741918564,"fine":0.11082373559474945,"not":0.2067408412694931,"rawaa":-0.04838337376713753}},"1":{"bias":-0.15720783174037933,"weights":{"good":-0.543178915977478,"amazing":-0.47793903946876526,"awesome":-0.6460765600204468,"incredible":-0.3941984474658966,"i":-0.08006338775157928,"love":-0.09582410007715225,"you":-0.28503018617630005,"this":-0.20000743865966797,"is":-0.02064732275903225,"great":-0.27500176429748535,"bad":0.9014024138450623,"terrible":1.3174694776535034,"awful":1.2538797855377197,"disgusting":1.0725797414779663,"shameful":1.108160376548767,"normal":-0.9863842129707336,"okay":-0.9713238477706909,"fine":-1.061206340789795,"not":-1.5634307861328125,"rawaa":-0.9551377296447754}},"2":{"bias":-0.2351435273885727,"weights":{"good":1.0476164817810059,"amazing":1.2237308025360107,"awesome":1.1888641119003296,"incredible":1.2401522397994995,"i":0.2693127393722534,"love":0.45508480072021484,"you":0.43521618843078613,"this":0.2462838590145111,"is":0.44678276777267456,"great":0.14739930629730225,"bad":-0.6542178392410278,"terrible":-0.8040515780448914,"awful":-0.682374894618988,"disgusting":-0.7385257482528687,"shameful":-0.6790827512741089,"normal":-0.4385108947753906,"okay":-0.4470519423484802,"fine":-0.3790566325187683,"not":-0.07491173595190048,"rawaa":-0.18060506880283356}},"3":{"bias":-0.01519870012998581,"weights":{"good":-1.4424140453338623,"amazing":-1.336930751800537,"awesome":-1.2125492095947266,"incredible":-1.2155771255493164,"i":-0.3906101584434509,"love":-0.17570501565933228,"you":-0.516020655632019,"this":-0.4488973915576935,"is":-0.1905389279127121,"great":-0.146841362118721,"bad":0.8826507925987244,"terrible":1.2030093669891357,"awful":1.2005606889724731,"disgusting":1.1417200565338135,"shameful":1.229016661643982,"normal":-0.2792757451534271,"okay":-0.35537439584732056,"fine":-0.05812368169426918,"not":-0.8308750987052917,"rawaa":0.06948396563529968}},"4":{"bias":0.000310522475047037,"weights":{"good":0.4133068323135376,"amazing":0.6213240623474121,"awesome":0.6377697587013245,"incredible":0.7063467502593994,"i":0.1738216131925583,"love":0.16015025973320007,"you":0.27183809876441956,"this":0.12023336440324783,"is":0.08199575543403625,"great":0.32213523983955383,"bad":-0.4500036835670471,"terrible":-0.6948583126068115,"awful":-0.7350608110427856,"disgusting":-0.7541325688362122,"shameful":-0.5818545818328857,"normal":0.30521494150161743,"okay":0.20085236430168152,"fine":0.2649916708469391,"not":0.44662606716156006,"rawaa":0.20113255083560944}},"5":{"bias":-0.3017921447753906,"weights":{"good":1.431352138519287,"amazing":1.3092931509017944,"awesome":1.4135061502456665,"incredible":1.396404504776001,"i":0.20520754158496857,"love":0.5192197561264038,"you":0.30601271986961365,"this":0.392592191696167,"is":0.3576025366783142,"great":0.41752889752388,"bad":-0.7652100920677185,"terrible":-0.6875668168067932,"awful":-0.648600697517395,"disgusting":-0.7557560801506042,"shameful":-0.5647414326667786,"normal":-0.6901008486747742,"okay":-0.7748538255691528,"fine":-0.6871153116226196,"not":-0.23681795597076416,"rawaa":-0.6491139531135559}},"6":{"bias":-0.13802114129066467,"weights":{"good":-0.7412945628166199,"amazing":-0.670099139213562,"awesome":-0.4848807156085968,"incredible":-0.6053048372268677,"i":-0.047722917050123215,"love":-0.2031201720237732,"you":-0.2753380835056305,"this":-0.0038315108977258205,"is":-0.1011892706155777,"great":-0.2367185354232788,"bad":-0.070389524102211,"terrible":-0.22363099455833435,"awful":-0.15646080672740936,"disgusting":0.018385304138064384,"shameful":-0.2415541410446167,"normal":0.865570068359375,"okay":0.7037227749824524,"fine":0.8361904621124268,"not":0.9800047874450684,"rawaa":0.8966956734657288}},"7":{"bias":-0.262814462184906,"weights":{"good":-0.7612667083740234,"amazing":-0.767709493637085,"awesome":-0.7330831289291382,"incredible":-0.5378639698028564,"i":-0.13693168759346008,"love":-0.2924019694328308,"you":-0.26406383514404297,"this":-0.13818155229091644,"is":-0.004469578620046377,"great":-0.08150357753038406,"bad":-0.5232623815536499,"terrible":-0.893362283706665,"awful":-0.8574337959289551,"disgusting":-0.9067633748054504,"shameful":-0.8519276976585388,"normal":1.4270455837249756,"okay":1.5752373933792114,"fine":1.427539587020874,"not":1.7212680578231812,"rawaa":1.415026068687439}},"8":{"bias":-0.06409471482038498,"weights":{"good":-0.9475407600402832,"amazing":-0.9292851686477661,"awesome":-0.6850712299346924,"incredible":-0.7644655108451843,"i":-0.3274691104888916,"love":0.03002588450908661,"you":-0.31075727939605713,"this":-0.33025211095809937,"is":-0.03826025500893593,"great":-0.1740160882472992,"bad":0.272320032119751,"terrible":-0.13294315338134766,"awful":0.11722935736179352,"disgusting":0.000016578049326199107,"shameful":0.23930810391902924,"normal":0.8368564248085022,"okay":0.849402904510498,"fine":0.688118040561676,"not":0.7447957992553711,"rawaa":0.7453629374504089}},"9":{"bias":0.24572353065013885,"weights":{"good":0.36797547340393066,"amazing":0.42889177799224854,"awesome":0.7376655340194702,"incredible":0.593936562538147,"i":0.3034217655658722,"love":0.2926023006439209,"you":0.08006756752729416,"this":0.32055193185806274,"is":0.14604805409908295,"great":0.07256915420293808,"bad":0.5239808559417725,"terrible":0.6015318632125854,"awful":0.8139322996139526,"disgusting":0.9323395490646362,"shameful":0.8590887188911438,"normal":-1.5257781744003296,"okay":-1.377188801765442,"fine":-1.4265830516815186,"not":-1.6695808172225952,"rawaa":-1.4043676853179932}}},{"good word":{"bias":-0.22745054960250854,"weights":{"0":-0.1363239288330078,"1":-1.0591245889663696,"2":2.3335251808166504,"3":-2.889509439468384,"4":0.9628041386604309,"5":2.8533732891082764,"6":-1.529381513595581,"7":-1.6270452737808228,"8":-1.9871968030929565,"9":1.1211578845977783}},"bad word":{"bias":-0.4266482889652252,"weights":{"0":-0.5878467559814453,"1":2.940673828125,"2":-1.8466401100158691,"3":2.805987596511841,"4":-1.8521020412445068,"5":-1.7225074768066406,"6":-0.7378134727478027,"7":-2.3818483352661133,"8":-0.17237962782382965,"9":1.934156060218811}},"neutral word":{"bias":-0.1677597463130951,"weights":{"0":-0.004810663405805826,"1":-2.178173065185547,"2":-1.0293055772781372,"3":-0.20844119787216187,"4":0.24076434969902039,"5":-1.7232131958007812,"6":1.746187448501587,"7":3.2614035606384277,"8":1.6407312154769897,"9":-3.3274688720703125}}}],"outputLookup":true,"inputLookup":true,"activation":"sigmoid","trainOpts":{"iterations":20000,"errorThresh":0.005,"log":true,"logPeriod":10,"learningRate":0.3,"momentum":0.1,"callbackPeriod":10}}