{"sizes":[13,6,3],"layers":[{"hello":{},"how":{},"can":{},"i":{},"assist":{},"you":{},"bonjour":{},"fine":{},"amazing":{},"not":{},"happy":{},"bad":{},"terrible":{}},{"0":{"bias":-0.39005911350250244,"weights":{"hello":-3.2391357421875,"how":-0.5589290261268616,"can":-0.720713198184967,"i":-0.6028767228126526,"assist":-0.49129220843315125,"you":-0.8397303223609924,"bonjour":-2.482675075531006,"fine":0.49844929575920105,"amazing":0.36745983362197876,"not":1.1762620210647583,"happy":0.9588735103607178,"bad":1.9447966814041138,"terrible":1.966966152191162}},"1":{"bias":-1.5857923030853271,"weights":{"hello":0.017600171267986298,"how":0.585468053817749,"can":0.8280673027038574,"i":0.8579345345497131,"assist":0.9627938866615295,"you":0.8447979092597961,"bonjour":3.2586426734924316,"fine":-0.18469008803367615,"amazing":-0.31142935156822205,"not":-1.252969741821289,"happy":-0.8952515721321106,"bad":-1.9351285696029663,"terrible":-1.8691737651824951}},"2":{"bias":-0.8729982972145081,"weights":{"hello":-3.1997644901275635,"how":0.5221361517906189,"can":0.6789712309837341,"i":0.7019078135490417,"assist":0.7369667887687683,"you":0.8146336674690247,"bonjour":2.3912506103515625,"fine":-2.265777349472046,"amazing":-2.3135945796966553,"not":0.7930052876472473,"happy":0.7746992111206055,"bad":1.5325138568878174,"terrible":1.494395136833191}},"3":{"bias":-0.6933236718177795,"weights":{"hello":-3.509601593017578,"how":0.7482883930206299,"can":0.7213401198387146,"i":0.6220865249633789,"assist":0.5650205016136169,"you":0.7172847986221313,"bonjour":2.3042008876800537,"fine":-2.650557518005371,"amazing":-2.605766534805298,"not":1.1682281494140625,"happy":1.2799955606460571,"bad":2.1751763820648193,"terrible":2.215500831604004}},"4":{"bias":-0.2863937020301819,"weights":{"hello":-4.290869235992432,"how":-0.8727056384086609,"can":-0.886830747127533,"i":-0.7366042137145996,"assist":-0.6158353686332703,"you":-0.6311317682266235,"bonjour":-2.99691104888916,"fine":2.69378399848938,"amazing":2.743032455444336,"not":0.5288345813751221,"happy":0.35202622413635254,"bad":0.7596840262413025,"terrible":0.7552040815353394}},"5":{"bias":-0.41920265555381775,"weights":{"hello":-0.7228564023971558,"how":0.6997697353363037,"can":0.42956027388572693,"i":0.40781399607658386,"assist":0.5855484008789062,"you":0.33907872438430786,"bonjour":1.568392038345337,"fine":2.376608371734619,"amazing":2.300204277038574,"not":-1.3650450706481934,"happy":-1.5200403928756714,"bad":-2.609078884124756,"terrible":-2.605372667312622}}},{"hello":{"bias":-0.9187958240509033,"weights":{"0":-3.9268455505371094,"1":1.971050500869751,"2":1.5527825355529785,"3":1.2044771909713745,"4":-5.4215922355651855,"5":2.763993501663208}},"how are you":{"bias":-0.8059054017066956,"weights":{"0":-0.6099544167518616,"1":1.5416808128356934,"2":-4.147224426269531,"3":-5.147499084472656,"4":4.137331008911133,"5":2.808316230773926}},"sad":{"bias":-2.174956798553467,"weights":{"0":3.134690999984741,"1":-5.029033184051514,"2":2.237907886505127,"3":3.6995701789855957,"4":0.935588538646698,"5":-6.439722061157227}}}],"outputLookup":true,"inputLookup":true,"activation":"sigmoid","trainOpts":{"iterations":20000,"errorThresh":0.005,"log":true,"logPeriod":10,"learningRate":0.3,"momentum":0.1,"callbackPeriod":10}}