{"sizes":[15,7,2],"layers":[{"good":{},"amazing":{},"great":{},"nice":{},"beautiful":{},"i":{},"love":{},"you":{},"bad":{},"terrible":{},"awful":{},"disgusting":{},"not":{},"ugly":{},"hate":{}},{"0":{"bias":-0.11457332968711853,"weights":{"good":-0.17404867708683014,"amazing":0.1047724261879921,"great":0.06892067939043045,"nice":0.04260186105966568,"beautiful":0.2754988670349121,"i":-0.002281185705214739,"love":0.33291417360305786,"you":0.10837674885988235,"bad":-0.2176605612039566,"terrible":-0.23122310638427734,"awful":-0.33558064699172974,"disgusting":-0.15845972299575806,"not":-0.1345868557691574,"ugly":-0.2329387068748474,"hate":-0.20690204203128815}},"1":{"bias":0.0017253439873456955,"weights":{"good":-0.7270170450210571,"amazing":-0.9938323497772217,"great":-0.8524976968765259,"nice":-0.8261783123016357,"beautiful":-0.8963962197303772,"i":-0.030951349064707756,"love":-0.6198180913925171,"you":-0.00851931981742382,"bad":0.8634006381034851,"terrible":0.7446747422218323,"awful":0.730108380317688,"disgusting":0.8933512568473816,"not":1.3905636072158813,"ugly":0.8497330546379089,"hate":0.9037386178970337}},"2":{"bias":-0.2479039430618286,"weights":{"good":-0.112620048224926,"amazing":-0.40869539976119995,"great":-0.4363255500793457,"nice":-0.39590245485305786,"beautiful":-0.2128322720527649,"i":-0.03995532542467117,"love":-0.06342343240976334,"you":-0.04390124976634979,"bad":0.22484657168388367,"terrible":0.24946555495262146,"awful":0.11035103350877762,"disgusting":0.23108310997486115,"not":0.47648051381111145,"ugly":0.3941604197025299,"hate":0.295590341091156}},"3":{"bias":-0.12833553552627563,"weights":{"good":0.16308918595314026,"amazing":0.23331953585147858,"great":0.39149725437164307,"nice":0.21740256249904633,"beautiful":0.35696861147880554,"i":-0.03545038774609566,"love":0.30242711305618286,"you":0.15009723603725433,"bad":-0.4588821530342102,"terrible":-0.43484002351760864,"awful":-0.3666774332523346,"disgusting":-0.08611110597848892,"not":-0.49136173725128174,"ugly":-0.3014937937259674,"hate":-0.18822473287582397}},"4":{"bias":-0.18826434016227722,"weights":{"good":0.3554261326789856,"amazing":0.2789342701435089,"great":0.38079145550727844,"nice":0.5504574179649353,"beautiful":0.4600357413291931,"i":0.023218166083097458,"love":0.42806166410446167,"you":0.17725622653961182,"bad":-0.5988503098487854,"terrible":-0.3806309103965759,"awful":-0.39364027976989746,"disgusting":-0.25614726543426514,"not":-0.5548273324966431,"ugly":-0.19487302005290985,"hate":-0.2745305895805359}},"5":{"bias":-0.0014606049517169595,"weights":{"good":1.138456106185913,"amazing":1.612013578414917,"great":1.5963114500045776,"nice":1.5822035074234009,"beautiful":1.544960618019104,"i":0.10551521182060242,"love":1.370303988456726,"you":-0.013865468092262745,"bad":-1.5949468612670898,"terrible":-1.5647715330123901,"awful":-1.5831540822982788,"disgusting":-1.5185179710388184,"not":-2.30421781539917,"ugly":-1.4346182346343994,"hate":-1.5478671789169312}},"6":{"bias":0.036301497370004654,"weights":{"good":-0.7566261291503906,"amazing":-1.0596355199813843,"great":-1.040917158126831,"nice":-1.0498439073562622,"beautiful":-1.0302225351333618,"i":-0.06314705312252045,"love":-1.0054265260696411,"you":-0.047566208988428116,"bad":0.8344672322273254,"terrible":1.062671422958374,"awful":0.991527795791626,"disgusting":0.9499067664146423,"not":1.5195387601852417,"ugly":0.9027386903762817,"hate":1.1540684700012207}}},{"good word":{"bias":-0.4466306269168854,"weights":{"0":0.4975792169570923,"1":-2.302168607711792,"2":-0.6591476202011108,"3":0.8049226403236389,"4":0.9503716230392456,"5":4.326475143432617,"6":-2.777625322341919}},"bad word":{"bias":0.23642763495445251,"weights":{"0":-0.29040026664733887,"1":2.322906494140625,"2":0.8602222204208374,"3":-0.6906834244728088,"4":-0.991121232509613,"5":-4.324514865875244,"6":2.7430880069732666}}}],"outputLookup":true,"inputLookup":true,"activation":"sigmoid","trainOpts":{"iterations":20000,"errorThresh":0.005,"log":true,"logPeriod":10,"learningRate":0.3,"momentum":0.1,"callbackPeriod":10}}